digraph Tree {
node [shape=box, style="filled", color="black"] ;
0 [label="x1 <= 1.129\nentropy = 1.0\nsamples = 200\nvalue = [100, 100]", fillcolor="#ffffff"] ;
1 [label="x2 <= 0.54\nentropy = 0.573\nsamples = 103\nvalue = [89, 14]", fillcolor="#e99558"] ;
0 -> 1 [labeldistance=2.5, labelangle=45, headlabel="True"] ;
2 [label="entropy = 0.0\nsamples = 68\nvalue = [68, 0]", fillcolor="#e58139"] ;
1 -> 2 ;
3 [label="x1 <= 0.473\nentropy = 0.971\nsamples = 35\nvalue = [21, 14]", fillcolor="#f6d5bd"] ;
1 -> 3 ;
4 [label="entropy = 0.0\nsamples = 18\nvalue = [18, 0]", fillcolor="#e58139"] ;
3 -> 4 ;
5 [label="entropy = 0.672\nsamples = 17\nvalue = [3, 14]", fillcolor="#63b2eb"] ;
3 -> 5 ;
6 [label="x2 <= 0.773\nentropy = 0.51\nsamples = 97\nvalue = [11, 86]", fillcolor="#52aae8"] ;
0 -> 6 [labeldistance=2.5, labelangle=-45, headlabel="False"] ;
7 [label="x1 <= 2.556\nentropy = 1.0\nsamples = 18\nvalue = [9, 9]", fillcolor="#ffffff"] ;
6 -> 7 ;
8 [label="entropy = 0.971\nsamples = 15\nvalue = [9, 6]", fillcolor="#f6d5bd"] ;
7 -> 8 ;
9 [label="entropy = 0.0\nsamples = 3\nvalue = [0, 3]", fillcolor="#399de5"] ;
7 -> 9 ;
10 [label="x2 <= 1.86\nentropy = 0.17\nsamples = 79\nvalue = [2, 77]", fillcolor="#3ea0e6"] ;
6 -> 10 ;
11 [label="entropy = 0.33\nsamples = 33\nvalue = [2, 31]", fillcolor="#46a3e7"] ;
10 -> 11 ;
12 [label="entropy = 0.0\nsamples = 46\nvalue = [0, 46]", fillcolor="#399de5"] ;
10 -> 12 ;
}